{
  "layer1_weights": [
    [
      0.07327233711789993,
      -0.017789553413020288,
      0.019641385947693622,
      0.025954247694963573,
      -0.0714554200216281,
      -0.025210304252302525,
      -0.005909786340181122,
      0.038094508404133955,
      0.0764022956105428,
      0.1006806572418988,
      -0.021894812212139562,
      -0.029072529592644225,
      -0.037540798866525026,
      -0.03220455944226614,
      -0.07634297995274515,
      0.05554454852834682,
      -0.01282303860556547,
      -0.08816017688843247,
      0.021558080534157833,
      -0.08275237363740219,
      -0.05343503095178538,
      -0.02684622453494046,
      -0.0203402748452426,
      -0.0068553731131215335,
      -0.16153220942353955,
      -0.0045157454793187295,
      0.02872461468286012,
      -0.006140230072441415,
      -0.03596591657275645,
      0.0337458553434954,
      -0.010833115848136468,
      0.025772401550714624,
      -0.053444840314662706,
      -0.06535415863062581,
      -0.03195918605476101,
      -0.03035408783907262,
      -0.06012970590800333,
      0.08727248717117966,
      -0.014160567875323268,
      0.0475739866900327,
      -0.018749642882313684,
      0.010166754208323761,
      -0.007439631370818795,
      0.0008624631261306148,
      0.06038052281834359,
      -0.03882966690694968,
      -0.0608517545403414,
      -0.029229224961331582,
      -0.09435085559563443,
      0.02294838039090125,
      0.05931876982781086,
      -0.056486645936670916,
      0.08369917721071858,
      -0.062031696454031504,
      0.039523690578804234,
      0.09304339789645819,
      0.011139144607780045,
      -0.1718645386734303,
      -0.026556257687230706,
      -0.011188018867691246,
      -0.030125882253277347,
      -0.058554258329210976,
      0.03824116535015735,
      -0.01694862087013664,
      -0.004024594981461065,
      0.1635114869266859,
      0.07956376213565924,
      -0.06768805862315148,
      0.07880553208491226,
      0.11595268922952606,
      0.162669016876287,
      0.007808672972195271,
      -0.13676691861015863,
      -0.2080733410865277,
      -0.08746778515076149,
      -0.10172352936778935,
      0.009320452555331225,
      0.028486209712930047,
      -0.03810021006000314,
      -0.06104861807596948,
      -0.0007851705945740059,
      0.007089801025195678,
      -0.007325742347622687,
      0.05539220506088282,
      0.008869335131927834,
      -0.07608136013354276,
      0.0226789721521122,
      -0.018835058500499446,
      -0.012773041010944631,
      -0.09672025601050249,
      -0.04878389860966892,
      -0.09148345574902556,
      0.15546989515444917,
      0.2948308004077651,
      0.29188191170279004,
      0.19094635468156754,
      0.3164100627665688,
      0.4197193051448651,
      0.11179623866023386,
      -0.18154325065077442,
      -0.2967470688057144,
      -0.5254906331032364,
      -0.35615053100752747,
      -0.2871072120763495,
      -0.11027837421976042,
      -0.20881389300243516,
      -0.16063480246053816,
      -0.00925039966401924,
      -0.00872429408502431,
      -0.011478734335267766,
      0.04983497519998658,
      0.007123376600701453,
      -0.014351113244198875,
      -0.004528395059459596,
      -0.016089168661256863,
      -0.046175886670091204,
      -0.004283055020977517,
      0.18923830321288465,
      0.2798293824111913,
      0.21772233080232717,
      0.48101238020790416,
      0.49956107529291954,
      0.8729289787064931,
      1.2233492736983693,
      1.821783106647541,
      1.056916202527176,
      0.200803036055775,
      -0.09485805585313593,
      -0.020767164366843265,
      -0.16864865572660828,
      0.38172702858758734,
      0.11131279051080585,
      0.14998272663101653,
      -0.0070817386564586875,
      -0.03284356553081993,
      -0.09177893144089763,
      -0.008085948916219927,
      0.03284548528587417,
      0.010149703548401981,
      -0.02220616795803927,
      0.029635074097328153,
      0.012230156692404426,
      0.016007726982826834,
      -0.025494431333686483,
      0.04179711065175898,
      0.3377626409718995,
      0.5611434766145111,
      0.5126312835579798,
      0.4019721461637003,
      0.4063506985875064,
      0.9421972447240202,
      1.5906688230362922,
      1.4330912609531006,
      0.4039943955158942,
      0.30798914353613005,
      0.2881241714543216,
      0.6792226493249075,
      0.32908591490064987,
      0.28272870719824206,
      0.0445649665016336,
      -0.4231315469485133,
      -0.2473310143294741,
      -0.10851417516318411,
      -0.08558443547167544,
      -0.0976522217098865,
      0.00041587653711105184,
      -0.03824915366507207,
      -0.0986418502222133,
      -0.03683842138315588,
      0.03428253326571331,
      -0.008050499367505654,
      -0.08829912919691252,
      -0.11037983169132057,
      0.3279055764085092,
      0.4544840835332447,
      0.34678864156902567,
      -0.4628915276091376,
      -0.33474493381298404,
      -0.0957672571702266,
      0.01219299059544829,
      -0.4163618310890722,
      -0.3366824738666868,
      -0.242938342268932,
      -0.2578402306784842,
      -0.15855457748618543,
      -0.2879649960907917,
      0.02104840913248439,
      -0.3340844980184844,
      -0.36818536788811557,
      -0.17391925593460208,
      0.0032400026544160444,
      -0.11699807753950464,
      0.059939503745788866,
      -0.07108151005857365,
      -0.01751637422162226,
      -0.004952614266612729,
      0.02076200777141735,
      0.026260291428324305,
      0.08838598760875481,
      -0.07856793745160445,
      -0.05744775161456041,
      -0.08788844619385966,
      0.19204539738725596,
      0.7307989453422408,
      0.22490132043146596,
      0.01478544582058918,
      -0.46138614445760906,
      -0.5768563327317477,
      -0.47368040860301497,
      -0.7402269926105397,
      -0.9991948148968831,
      -0.682789824207183,
      -0.5158365093789213,
      -0.28602815701923834,
      -0.17855178653525708,
      -0.49951276676729467,
      -0.2853592712123874,
      -0.05639119826884751,
      0.3780417888625319,
      -0.030894400975716198,
      -0.05129810930186478,
      -0.0884907656067986,
      -0.0020375183799667233,
      -0.011479201478512339,
      0.038626470426496834,
      -0.034785620061724414,
      -0.05969602839769123,
      0.03621963843103239,
      -0.05990149632003675,
      -0.18306701805243852,
      0.19096881099627508,
      0.4470345035400087,
      0.4048270527371326,
      -0.05104386661876205,
      -0.07438176303605605,
      -0.4501838769571392,
      -0.7049100557148275,
      -1.2620840287861612,
      -1.199552052243514,
      -1.1359213098291896,
      -0.6254723475946345,
      -0.29703593035350195,
      -0.6698707031238469,
      -0.48678969364169855,
      -0.5644172330781831,
      -0.10365807099161106,
      0.20150081076088586,
      -0.05250342883673011,
      -0.08580534454962481,
      -0.10895865914794478,
      0.11045539853446444,
      0.1114923528904624,
      -0.0055323122385538956,
      0.005407053678891274,
      -0.06772173640890895,
      0.033797278217809555,
      -0.40918206706817056,
      -0.4543749648439631,
      -0.0009890799794735098,
      -0.07827045965699135,
      -0.4747842072880789,
      -0.32112204657983,
      0.12060131952793061,
      -0.2961206210728074,
      -0.654549581647496,
      -0.8244321215175613,
      -0.9288142380242465,
      -1.2449792781327245,
      -0.5583837998317075,
      -0.24117418445153915,
      -0.8997096454864336,
      -0.6912032593102144,
      -0.7262434061105311,
      -0.5840619955818512,
      0.35379270249120154,
      -0.33858683556193114,
      -0.10641971672617931,
      -0.019190762718666394,
      0.015153082017185435,
      0.08747403552197434,
      -0.0135455873027243,
      -0.029477066753967596,
      -0.00943464550044474,
      0.18018089612264104,
      -0.09423023658467122,
      -0.5195055948545545,
      -0.8235376256046142,
      -0.9029777579327997,
      -0.8228173716743223,
      0.00847192277883375,
      -0.03563840912330427,
      -0.22530742042948365,
      -0.7257326950186078,
      -1.0796806315693426,
      -1.169437887867091,
      -1.0487931537341972,
      0.18156155654244188,
      -0.25070965016892277,
      -0.11889637227109455,
      -0.11104539713359682,
      -0.30354448513402515,
      -0.18709981407104787,
      0.1044739963323521,
      -0.21881315694455913,
      -0.08955233041227671,
      -0.09265533402561112,
      -0.10122416657938607,
      0.01862837019863502,
      -0.026764402845766085,
      -0.03561589513223113,
      0.012665781775072339,
      0.1458132136508517,
      -0.15126568619667535,
      -0.49538375712995636,
      -1.136343530498426,
      -1.5589811301702197,
      -1.1932829344628504,
      -0.6976530885130241,
      -0.6400648327436288,
      -0.7481507502055474,
      -1.4540121507438097,
      -1.750549646532663,
      -1.1415386596424433,
      -0.9448468336869549,
      -0.24268436258589474,
      -0.4637302591247766,
      -0.14186669219224143,
      0.32369710997353285,
      0.23897395441157615,
      -0.11368001183066846,
      -0.33826179133460715,
      -0.3753257750312071,
      -0.2911151710322878,
      -0.1335238857078163,
      -0.15747956226029905,
      0.022762400975016674,
      0.03663782572698694,
      0.01591288157679575,
      -0.05020156468806782,
      -0.051518396440132834,
      -0.1720112658863212,
      -0.9564737700165701,
      -1.069051504119608,
      -1.162776641170012,
      -1.1994626163644484,
      -1.2844509667704054,
      -1.384953305897643,
      -1.4421949424375529,
      -1.6798952039637256,
      -1.9797159825567494,
      -1.5456584870399317,
      -1.499701904805587,
      -1.0403034211291344,
      -0.8263144011647116,
      -0.13167962156688887,
      0.09963411233350424,
      -0.21915706566564577,
      -0.6712480936242164,
      -0.9975419522464221,
      -0.3369846066531578,
      -0.15232827551660869,
      0.01911056822412663,
      0.016554038144833933,
      -0.07097109600341106,
      -0.07046062190918397,
      0.03313024554076486,
      -0.029504588825366867,
      0.033621803989775934,
      -0.20344013959769966,
      -1.0850471566719222,
      -1.1271915929710283,
      -0.9190944279579737,
      -1.05285426471561,
      -1.1764754567636113,
      -1.0157430476083587,
      -1.3720972602601773,
      -1.5565391958987733,
      -2.0194177092630334,
      -2.2196942891627787,
      -1.9856470556777466,
      -0.99446279595763,
      -0.6042811776654664,
      -0.6325132982732923,
      -0.5572443745504271,
      -0.3545415618078961,
      -0.7431663334799198,
      -0.7509310074543469,
      -0.33634209670065623,
      -0.24470285895550845,
      -0.035234063167544544,
      0.007249851889959861,
      0.005712905888747905,
      -0.019663493661682654,
      0.02641433500052274,
      0.003054766721440661,
      -0.022905357707367957,
      -0.15447980810728523,
      -0.8958825841236877,
      -0.8653491735979796,
      -0.643961881941855,
      -0.8249226380616518,
      -0.6090559054652368,
      -0.3837179650888805,
      -0.6671734215353609,
      -1.096729397793581,
      -1.3370481958431983,
      -1.2087401514467624,
      -1.290873541385227,
      -0.3618793453905441,
      -0.9310694715680311,
      -0.7509225467753392,
      -0.9098829334192181,
      -0.6319202182186092,
      -0.45139419916074347,
      -0.6683204653732193,
      -0.3154729639357554,
      -0.06923027925606147,
      0.05812015678695129,
      0.02076180160048565,
      0.02092411415426953,
      0.04500119751645968,
      0.006215346469790225,
      0.0063520706076661965,
      -0.06910589127438627,
      -0.06122490856337008,
      -0.6006031175771686,
      -0.4149431138662057,
      -0.1366844361645329,
      -0.20875295608799607,
      0.24422773834764167,
      -0.017713763805128034,
      -0.010270338566589127,
      -0.07975481439586331,
      -0.4836134514019564,
      -0.8315435745397982,
      -0.6739274406279254,
      -0.01996832959710397,
      -0.5836310844267723,
      -0.8563520683990048,
      -0.8994982415085453,
      -0.6213825572887667,
      -0.3838924633916853,
      -0.5286030627206221,
      -0.26249677440536506,
      0.057606450175721566,
      0.20943584938038845,
      0.03088408003301951,
      0.025042393920469617,
      -0.012532541931114052,
      -0.028357594676550996,
      0.022312122098084138,
      -0.12451885827234013,
      -0.31932915492358155,
      -0.5791174573382414,
      -0.24782646972725028,
      -0.25627097104524654,
      0.5555958775764389,
      0.2822833281339085,
      0.3362934533850658,
      0.09849457193814358,
      -0.16766758500607956,
      -0.06486019253562066,
      -0.016265498077065104,
      -0.35855539062380054,
      -0.39929785135905854,
      -0.9201064619226849,
      -1.0247499190550113,
      -0.4042645467938214,
      0.004287678045980145,
      -0.26523233562414444,
      -0.0476965796005143,
      -0.1882964509987696,
      0.012752741305099957,
      0.3215578424967214,
      0.05842555411502483,
      -0.013729241258899854,
      0.020562548715789518,
      -0.029669885085381435,
      0.1402927471225718,
      -0.0032273980597839176,
      -0.3758169524038189,
      -0.3140867483856477,
      -0.04914682282646831,
      0.23089481971592393,
      1.2047364989247027,
      0.9958469102239167,
      0.5657160753306665,
      -0.38449342260399966,
      -0.009054235910033176,
      0.7799698281966372,
      0.2884562621244621,
      0.03939914060384342,
      -0.5249691705374858,
      -0.6581811319707367,
      -0.8480330823967694,
      -0.3576266788862881,
      0.5200868550486095,
      0.4948907456351261,
      0.12338351300510403,
      -0.10175483668982016,
      -0.046221693432927244,
      0.13031055436786096,
      0.06469164061451702,
      -0.10443459768246693,
      -0.07413905091489124,
      -0.006606270461092993,
      -0.0039658044011676745,
      0.25264053528901126,
      0.04298683419748797,
      -0.2895117184289954,
      -0.23639578187641205,
      0.4907634229455783,
      0.6971604459744669,
      0.8110186055086621,
      0.6636569375073216,
      0.24091368628010468,
      0.44327901818603854,
      0.3486279245277768,
      0.28406177594072424,
      -0.19855552950185953,
      -0.04285843446348321,
      -0.11595761951660756,
      -0.3290512936316596,
      0.09888983928162969,
      0.5228892100039205,
      0.7290006540061448,
      0.2268037622501537,
      0.3385559401262497,
      0.4392332892437278,
      0.08756268601324052,
      0.0008340021355081519,
      -0.045723737539928415,
      0.046077178411939645,
      -0.023342692048965368,
      0.041104882455291154,
      0.3312220408813489,
      0.13080660651619702,
      0.4921505354759324,
      0.24844001986726555,
      0.00519189254850536,
      0.3204479585826796,
      0.15927479377399556,
      0.16159633503604204,
      -0.1413804136060028,
      -0.5431074780297664,
      0.4097813753382944,
      0.06684586188940078,
      -0.03347104940844731,
      -0.14688719457021404,
      0.08237973682683958,
      -0.12568943956966946,
      0.19394087293326234,
      0.37123283854118927,
      0.5412364081799219,
      0.3859582766813977,
      0.3442146920849861,
      0.13059550360799185,
      -0.05221009167516264,
      0.02972324652600686,
      -0.00233670617955081,
      -0.10233484709001976,
      -0.014112483555999993,
      -0.07028882174834125,
      0.1588169296699699,
      0.10614895404350659,
      0.4915931988545999,
      0.3787422240228746,
      0.14352398628671637,
      -0.00469778576660743,
      -0.21958205571889616,
      -0.4272189813829071,
      -0.4288668393629191,
      -0.5831103443505866,
      -0.26492897847887464,
      -0.3332835056033734,
      -0.6071696497621558,
      -0.30617091518729034,
      -0.12883934540949973,
      -0.1341996946212982,
      0.19405209380852864,
      0.46306429995980986,
      0.6308035465299127,
      0.4564905166128469,
      0.33481202953133415,
      0.2313615265009985,
      0.13655349670023112,
      -0.016302650202635098,
      -0.060834486395870496,
      -0.06467832778436233,
      0.004476280059496619,
      -0.2391910204465843,
      0.1163421132850691,
      0.5166981483625877,
      0.6053958548841679,
      -0.22507067807276382,
      0.042380716714648145,
      0.5549625089492418,
      -0.3269340384458762,
      -0.4973598291941751,
      -0.22197478166607318,
      -0.638470030070992,
      -0.5725900311326967,
      -0.4802355011568768,
      -0.9748048479107243,
      -0.8851127334220693,
      -0.3606371658071593,
      -0.27018905195003273,
      0.20424958682632616,
      0.9284807930469985,
      1.1411002749428045,
      0.822466620817683,
      0.890682942880466,
      0.6849250978900044,
      0.18867961012171083,
      -0.05946329235802673,
      -0.07338472959485261,
      -0.014837358936111922,
      0.056519028371350075,
      -0.16139089208099092,
      -0.02897263217713112,
      0.5414661698207439,
      0.9980529638645601,
      0.3786043055928089,
      0.32339068857418635,
      0.35984183723157087,
      -0.02721337546087918,
      -0.2994235709767196,
      -0.860483943684952,
      -0.9806805645384703,
      -1.0548414053006563,
      -1.5704386394234306,
      -1.8790756756197924,
      -1.57066000511517,
      -1.0004801232334537,
      -0.05531303985331051,
      0.3571944168052864,
      0.668921217067191,
      0.995355267948694,
      0.6729737578647527,
      0.6286920071327139,
      0.5705472020699359,
      0.22233066510947055,
      -0.016098083420120948,
      -0.010744913760663078,
      -0.052396724356093556,
      -0.08655671347097581,
      0.06944140508623439,
      0.1369734728622878,
      0.1683307223193755,
      0.5849253352832657,
      0.41472446162618015,
      -0.051962579090811326,
      0.025314007318955164,
      0.2616492993475977,
      0.0948523746426017,
      0.08885309117303174,
      -0.458362996491646,
      -1.4746986298914646,
      -1.4313064718428177,
      -1.085300395783483,
      -0.9089685263144909,
      -0.6979101172521575,
      -0.314561337309608,
      -0.040356247368675935,
      0.07617199987741205,
      -0.004237985540363083,
      0.05693164664965628,
      0.2645416048988552,
      0.2536022646490604,
      0.10336392147071362,
      -0.006066370427321809,
      -0.037270584948380786,
      -0.1147526878054991,
      0.021628042523890247,
      0.045078847104787836,
      0.03405103528874421,
      0.05202814835322961,
      -0.038879367687126076,
      -0.5856654474586055,
      -0.7563893650469404,
      -0.6670898134990756,
      -0.7690072294479751,
      -0.7256244788474029,
      -0.49740794430494917,
      -0.6598637977199654,
      -0.6062282502182519,
      -0.6508164743869147,
      -0.8459111070440026,
      -0.9127227381136934,
      -0.7245905003008952,
      -0.5158224547456974,
      -0.4410422124818475,
      -0.37639211812678225,
      -0.11810875469373133,
      -0.09332871854660837,
      -0.11766746161677596,
      -0.007858318648847574,
      -0.07053070624508434,
      -0.02527845913409494,
      -0.009261167573393497,
      0.049414562487697815,
      0.05798051360078587,
      0.06537000490755801,
      0.08688265061070788,
      -0.0007722188345244308,
      -0.07398865857919301,
      -0.09860414764475516,
      0.06512950893959724,
      -0.2590873851026436,
      -0.2976357261768223,
      -0.3242789284365584,
      -0.4056496009586336,
      -0.3400649145850058,
      -0.3052670024626769,
      -0.07412680068852172,
      -0.18932161310322598,
      -0.09307600031210983,
      -0.03390714351884523,
      -0.16375651919532885,
      -0.24428850738558405,
      -0.19302612901100738,
      -0.13941082183774034,
      -0.0007210866816479987,
      0.05380636864877439,
      -0.04919241938708435,
      0.018975860755472904,
      0.06309030687614872,
      -0.01405774373269478,
      -0.007205220924773448,
      0.013982011661326987,
      -0.027095720501393403,
      -0.021692766135839307,
      -0.03588374435544583,
      -0.018723888911107836,
      0.03694227862152309,
      0.0024264313704650585,
      -0.06461503725669683,
      -0.08431071811046958,
      -0.09424452694345195,
      -0.024299910448790957,
      0.007477675777107169,
      -0.03223518139645572,
      0.025199012887351782,
      0.037339831235411645,
      -0.040849280071511264,
      0.02131181868368268,
      -0.002481551499566751,
      0.061143085697029316,
      -0.010661982911761436,
      0.041428589309506436,
      -0.03532319732606086,
      -0.035087856523917375,
      -0.015133549246667656,
      -0.009080634252796082,
      -0.031957822889186666,
      -0.0048751936521708745,
      0.01130951674386132,
      0.007129948899038487,
      -0.052962301102617855,
      0.029809960390115048,
      -0.0022890499141633904,
      -0.00025681517194130275,
      0.05205844943778915,
      -0.04291721942366852,
      -0.0008545348587152365,
      -0.045498723959413526,
      0.020389871390966555,
      -0.0014281833145995987,
      0.032434231340398884,
      -0.1390590045085298,
      -0.0008507031310324492,
      -0.016974040993710846,
      0.0242417410093844,
      -0.00016739218026490206,
      0.057184469973697034,
      -0.008167971281715165,
      0.01522148626259059,
      0.028330757223445857,
      -0.006075296073133449,
      0.02648136262525105,
      -0.014409006634705674,
      -0.01654601483434837,
      -0.005610257834710406,
      0.01521140558297793
    ],
    [
      0.015816825643294775,
      -0.016616803641996122,
      -0.01454119235301161,
      -0.022993399098458347,
      -0.044034599132255825,
      0.045225330904363266,
      0.02768819597296186,
      0.058410316629225585,
      -0.09667084990619582,
      0.037394782241660866,
      0.04810824300069255,
      0.03896315109026395,
      0.023541024242364525,
      -0.031013148969677027,
      -0.051850895096474295,
      -0.046501828219824896,
      0.013961904592929019,
      -0.13699271723749518,
      -0.04162962621691215,
      0.04792811871164937,
      -0.01806427689360964,
      -0.006891050908450423,
      -0.03460520231399809,
      -0.04446876269821193,
      -0.0722673049232024,
      0.03777739514164271,
      -0.0004952600180093042,
      0.041520020011599525,
      0.13099365308853145,
      0.03840592655660311,
      -0.0736323226563485,
      -0.10089253333630097,
      -0.029884893909637854,
      0.06027225437891618,
      -0.005174397068434486,
      0.059732482155450406,
      -0.053733330441126194,
      0.026788301302727392,
      0.0976818957559662,
      0.05067747503433003,
      0.033441374550096305,
      -0.030544105909647477,
      -0.03665655714942442,
      0.008249389791406929,
      -0.06498314982154857,
      -0.03860668113321549,
      0.06897088799812567,
      -0.0009203710531601679,
      0.05202579804691164,
      -0.0154635848434127,
      0.02897296995589476,
      0.04915809742026601,
      -0.008326931594454556,
      0.009354463277703742,
      -0.04388943524633282,
      -0.08726654421158761,
      -0.02360623546006225,
      0.0010080478632879788,
      0.0549291256843183,
      0.0005940994768110812,
      -0.01011492794994434,
      0.009934700438881906,
      0.023816886302741654,
      0.032534977421577,
      0.005802510927804779,
      0.050322945314911154,
      0.00034349291498751776,
      -0.019570910211462907,
      -0.04738152526261918,
      -0.05530716059174651,
      0.04372757049564726,
      0.01473103046580769,
      0.060228826626880706,
      0.022431438989929792,
      0.011432490806925936,
      -0.09468113609352496,
      0.00944433236937838,
      0.04802113426412853,
      0.03732428657435005,
      -0.016301222863304477,
      0.012973570760915537,
      0.015251239010499296,
      -0.021566698113521264,
      0.025994301166288352,
      -0.012271271747127744,
      0.03401860172983787,
      0.015345019038071332,
      0.06138271698284355,
      -0.056139140801072886,
      -0.013169693892811741,
      -0.07930307157384182,
      0.07862474069092786,
      0.001180685766410245,
      0.03315499772808549,
      -0.044571786758048265,
      0.018882620480081037,
      -0.040310138157301945,
      -0.051202512114235765,
      0.01603604927406825,
      -0.022322506197786588,
      -0.06348170036966766,
      0.06434313945997906,
      0.020973549560237198,
      0.004064042549471107,
      -0.006967169015598986,
      -0.030032226165407527,
      0.04887966824343479,
      0.037681570787009955,
      -0.058449043104578956,
      -0.03470840415494564,
      -0.02532921590356139,
      0.018313329521200773,
      -0.001733908078146859,
      -0.03238940893618642,
      0.03211293760619708,
      -0.022319982588442495,
      -0.009736601881627133,
      0.03434464609722251,
      0.004423273773959572,
      0.09710689137440018,
      -0.20537760390148957,
      -0.10738682499874898,
      -0.3231823301603572,
      -0.2602402111442303,
      -0.4873025898453379,
      -0.18783355511351524,
      -0.13816966370520295,
      -0.179688473069729,
      -0.2759984207013984,
      -0.3025642742826137,
      -0.2551765093337354,
      -0.48300603834998457,
      -0.468793309111985,
      -0.11715021387625024,
      -0.08543765456115872,
      0.048712938111536465,
      0.015144486841798567,
      -0.000569299372066476,
      0.05297360632858233,
      0.023064329049181424,
      0.028389382014932043,
      -0.01795543105972551,
      0.015293224799450812,
      -0.011453278881543441,
      0.06626893042884176,
      0.0003541137662661509,
      0.2068693667954218,
      0.08369804500408358,
      -0.16851670753752065,
      -0.5059667066104971,
      -0.815236955298751,
      -1.0620134005040134,
      -1.0612621642511428,
      -1.1142710764722266,
      -0.9092809100783134,
      -0.9777157678166061,
      -1.2422298047119198,
      -1.109919849068289,
      -1.1250992068200047,
      -1.4610443380220728,
      -0.9920050267106203,
      -0.008703651948331021,
      -0.07836381541549305,
      -0.17620217830526344,
      -0.25747060744913064,
      -0.21541117043762031,
      -0.13197583367337726,
      0.06728678099684973,
      -0.0470164113376104,
      -0.03377453207223493,
      0.09218479100453883,
      -0.010800894589805418,
      0.27979030267346894,
      0.388375505146455,
      0.7492991292197291,
      0.1212691067036239,
      -0.0987269686224929,
      -0.3922890826740856,
      -1.1252548352200493,
      -1.6277974608277352,
      -2.013235013217477,
      -1.9622228362477623,
      -2.6868446310505694,
      -0.9501823327493778,
      0.48374511667989367,
      0.46334640228572044,
      -0.49621018755934065,
      -1.099640986859003,
      -0.7599357469607302,
      -0.5253632822275307,
      -0.20744769302468147,
      -0.15041043062194479,
      -0.17369438164669793,
      0.06043407805817682,
      0.09070473477967085,
      -0.1005081973077384,
      -0.04290241836635206,
      0.024597725948882754,
      0.010650010730648946,
      -0.028363943957259153,
      0.028253129236964027,
      -0.08335194086149182,
      1.0806434502955238,
      0.8561446647424237,
      0.9162554657816244,
      1.6261590730142368,
      1.8332443903849946,
      1.392325738708474,
      1.2568848037783793,
      -1.4260751701798706,
      -2.162940157799831,
      -2.0236493186454525,
      -0.6984274276714052,
      0.7802044870238843,
      1.320041107790437,
      -0.2784758432855113,
      -0.4677443641798574,
      0.16199057628190675,
      0.11811209329288898,
      0.20962699935126974,
      -0.20491227402610265,
      0.018890497477753163,
      0.0036077876815670145,
      -0.07009289231331892,
      -0.03198927379896175,
      -0.050455587992386725,
      0.08885172009516219,
      0.06649708130524157,
      -0.09808705057052021,
      0.05470305775348597,
      0.2717135486712625,
      0.9272882236920801,
      1.6450524695817408,
      2.534418134686563,
      2.0722249465371845,
      2.1612586097633764,
      1.862639201371185,
      1.1411506609407132,
      1.294456922719343,
      1.4199451841223991,
      1.579920336387912,
      1.433509494057995,
      3.0630327908878554,
      0.4774079810267917,
      -0.7965630852743579,
      -0.19715854857511234,
      -0.008422203853248968,
      0.2553240686092049,
      -0.19632998367769972,
      -0.10516896142814829,
      0.05357779078307713,
      0.04050072040266989,
      0.045234429086170105,
      -0.04571654850725272,
      0.04113841941400297,
      0.28288554262178744,
      0.47625085274931983,
      -1.126201038783417,
      -0.1960129299225126,
      0.07275323663369838,
      -0.3163930923962925,
      0.9997958264281902,
      0.7565894359341666,
      0.8258530069377144,
      1.2563647700776226,
      1.889273698672415,
      1.3111011086712943,
      0.8626806878231578,
      0.5900717327366625,
      2.934155077916379,
      3.773439742085123,
      0.2719732773631003,
      -0.6016076531600157,
      -1.1573562085714773,
      -0.3182811729031348,
      -0.4629530646793657,
      -0.3790697462160205,
      -0.11882555857988057,
      -0.0721870255336753,
      0.0457348266378232,
      0.030144459089188138,
      -0.10870311309675484,
      0.31267769042230015,
      0.368452363354254,
      0.5174863855175739,
      -1.0067848863883293,
      -1.5094560661928944,
      -1.167644382873796,
      -0.826357867363077,
      0.9230616189896683,
      0.9495513585042537,
      -0.44555428294932686,
      0.053140896324631724,
      -0.7704174688228529,
      -2.2867699424662002,
      -1.3204065975681611,
      0.919923760730476,
      1.5998533552644063,
      0.8947433907677622,
      -0.630142423639481,
      -0.4099404168612696,
      -0.8937775484890711,
      -0.6498878786803658,
      -0.8567091911499675,
      -0.4841356812322742,
      -0.2683572415626578,
      -0.1743577746809645,
      -0.06282448871686179,
      -0.019727586183082003,
      0.0037625707601834277,
      0.14811079854445713,
      0.2513710424931872,
      0.012277533113140279,
      -1.383428618101448,
      -0.8992021902350634,
      -0.47679003817508925,
      0.11100891882097684,
      0.7694060069015647,
      1.2675674794533387,
      -0.20083938647239694,
      -1.5524583751982424,
      -3.133654210486857,
      -2.6184564934304873,
      -1.539173008627376,
      0.2814611773091901,
      0.8808370730542526,
      0.552077672324942,
      -1.4726884585205846,
      -0.349560398292958,
      -0.17634670489258658,
      -0.5067811758395906,
      -0.7602397089856907,
      -0.43322459483358544,
      -0.20379382379341487,
      -0.09489118933850722,
      -0.019979230562965276,
      0.03711717728200589,
      -0.0017567749168537461,
      0.08681537566704482,
      0.14115723700015326,
      -0.3351243777966288,
      -0.8295419915966457,
      -0.36694014291785126,
      -0.28096651805041006,
      0.632219633270674,
      -0.6211692870456758,
      0.46201563083623576,
      -0.9647875433914678,
      -3.4397012094688186,
      -4.341052215829429,
      -3.291667853938185,
      -0.9871538573033184,
      0.8903698691945412,
      -0.8721799287881323,
      -0.49131557268963333,
      -1.9055073185062132,
      -2.207087191566067,
      -0.9623905563382535,
      -0.8380824616314784,
      -0.8801376949730635,
      -0.32246625890773506,
      -0.045289541825310704,
      -0.11135011388949205,
      0.01612830874743385,
      0.031231750949456457,
      0.03313725524945183,
      -0.02088362652721345,
      0.04362184958382804,
      -0.5026256262426326,
      -0.5983601757985432,
      0.23814737744792513,
      0.13968947479801036,
      0.10728924109221752,
      -1.5066987875193811,
      -0.5349738065907689,
      -2.194932591059749,
      -3.9334572064391984,
      -4.41932020352966,
      -2.6391743339033957,
      -0.9500743067144621,
      -0.19746335376808827,
      -0.6621217347215399,
      -0.6113744474967586,
      -2.205756052761393,
      -2.277361385765021,
      -1.1851264418361098,
      -0.7097018339154626,
      -0.5246691063123664,
      -0.2836107392998351,
      -0.07757733632887132,
      -0.03454260945832617,
      0.008175871519840543,
      0.034808801571885824,
      -0.020797141361691966,
      0.08220298507885411,
      0.09936109655536125,
      -0.48528277092211647,
      -0.6412994200952675,
      0.15910321966093532,
      -0.02050877285237625,
      -0.5748577649597096,
      -1.6764282688754577,
      -2.01844945066782,
      -3.1537423960175146,
      -3.997836221839082,
      -3.8910713585723404,
      -0.955037600534202,
      -0.7238586923805034,
      -1.1570481315194916,
      0.7862463281839142,
      1.050677899060577,
      0.09776134858694364,
      -0.7304136320266589,
      0.5412306550201641,
      0.8875255879327422,
      0.28402645479633754,
      -0.06583047842125019,
      -0.17047805820955153,
      0.06497800542736334,
      0.032343335746531754,
      0.01580084674333239,
      -0.010179635550869594,
      0.09719198901134443,
      0.24890306873047138,
      -0.17437630048257075,
      -0.47673911956567766,
      -0.05051047642652347,
      -0.27652744774952204,
      -0.9802406144198221,
      -0.8535525626895999,
      -0.3834865903552144,
      -1.6126929970374766,
      -2.848762510997098,
      -3.296055677459974,
      -1.3186547454831186,
      -1.0122680906583164,
      -0.4478051725827912,
      2.659748976552226,
      2.238169930904676,
      1.1289268796380472,
      1.0707920468196397,
      1.5092187424881365,
      0.7483594828091545,
      0.04394075401405466,
      -0.1801478202306729,
      -0.024556518117872052,
      -0.011040702500282242,
      -0.04979796534498453,
      -0.08138341597429455,
      -0.031103742205531627,
      -0.030646702488562425,
      0.06979204259610863,
      -0.08908596528001024,
      -0.4248542890442291,
      -0.4983390426167076,
      -0.4088357825221618,
      0.11797875935536047,
      0.4592404537477072,
      -0.0912535041727011,
      -0.1580338117746589,
      -1.377170023472643,
      -3.0999107692741212,
      -0.21346318657524657,
      0.0017370408037937126,
      0.3223670608478994,
      1.191046390357521,
      0.34870226722487413,
      -0.05386804056145021,
      -0.49008224259398525,
      -0.3527736613072142,
      -0.44250257369745777,
      -0.5845337475315028,
      -0.254365507338466,
      0.002477553264659744,
      0.018829714572803677,
      0.03197184418807382,
      -0.0007571647372968439,
      -0.04180180495779735,
      -0.014008659180082445,
      0.05079257768841673,
      -0.04232357219491903,
      -0.3492251979996828,
      -0.6914712712652606,
      -0.8250010329018181,
      -0.37068394013190314,
      0.13054609411936136,
      -0.46187433354417795,
      -1.2908134704740322,
      -3.3494393575943224,
      -1.5748956301961377,
      -0.45175678015336024,
      0.29011510975018995,
      -0.025995359153376026,
      -0.808201029277353,
      -0.18350867090243358,
      -1.1903917781615858,
      -1.2916898282984348,
      -0.5384669956295788,
      -0.9229140473923307,
      -0.805528543535371,
      -0.509393789121952,
      0.05528639693621498,
      0.018253527052071217,
      -0.0503364990216586,
      0.09430680553796864,
      0.09916440013427279,
      0.02473363128367918,
      -0.08577782945532993,
      0.03194162183131449,
      -0.3382128120134035,
      -0.8800819718730923,
      -0.8177793069707183,
      -0.7205572557211531,
      -0.8186023685635951,
      -1.6318280327180665,
      -2.5480551089432515,
      -2.6886211886840634,
      0.3925502023426759,
      0.7965078888811931,
      0.35234694456761556,
      -0.7427803948740211,
      -0.5330484345884805,
      -0.7477405100379307,
      -1.500577547598234,
      -1.06137389632918,
      -1.0678594716082477,
      -0.825331739790698,
      -0.826742961610041,
      -0.568538540205626,
      0.03194639803112671,
      0.01674251299041453,
      0.015424317872818581,
      -0.019483755864085732,
      -0.03801988188804403,
      -0.06648566539388057,
      -0.011074638995709148,
      -0.03341528784144511,
      -0.4387173773413243,
      -1.0698564597735194,
      -1.2121173255335234,
      -1.2030986923853757,
      -1.565086730842028,
      -2.2561823378653583,
      -1.943206882107237,
      -0.18498518524209118,
      0.8924646395930586,
      -0.04840112507708779,
      -0.16554190038249264,
      -1.3214695074952851,
      -0.6222106465406002,
      -0.8977975123772284,
      -0.981325564055107,
      -1.3154495371045627,
      -1.4218017100731675,
      -1.1542746384192346,
      -0.7213358670840596,
      -0.41488633502634753,
      0.031990749202377634,
      -0.03884679012399267,
      -0.05660277797076489,
      -0.05735444788982935,
      0.004665514788662051,
      0.035421135890486316,
      -0.05962506444584726,
      -0.09463679398409994,
      -0.5517492609837785,
      -0.886819531865146,
      -0.8363453982940978,
      -0.9649525004505113,
      -1.6086412624069157,
      -1.934623285783991,
      -1.1725018503261309,
      0.2619523769589382,
      -0.8409504957719064,
      -0.9723575763930965,
      0.4874396850787302,
      -1.3473185849306237,
      -1.2455097482546629,
      -1.646807383209298,
      -1.245719691541327,
      -1.1277444507623886,
      -0.8750866905732422,
      -0.8731381425639133,
      -0.7105076009229481,
      -0.28698371244831206,
      -0.022027359312422296,
      0.04287142699356848,
      -0.11089254757642086,
      0.07257094069421159,
      0.05554478377262811,
      0.05286209803129985,
      -0.05857125388526907,
      -0.027472265956411238,
      -0.3663595145920562,
      -0.38892755857930783,
      -0.5843360202694614,
      -0.9856476124822032,
      -1.4011970596929493,
      -0.9091697906245457,
      0.31411428710540973,
      -0.0017360398851529917,
      -1.2319512073222614,
      0.17450548814725417,
      0.5288891327319774,
      -0.4550739267939991,
      -1.647884679498103,
      -1.8764327700616517,
      -1.5559579181311922,
      -1.2153593326182888,
      -0.7982737556037781,
      -0.6563845929645332,
      -0.38185713227075013,
      -0.2628089512889389,
      0.048815235025139875,
      -0.0014616320345844135,
      0.021728890526442363,
      0.10017546014792628,
      0.008098479961588445,
      0.0038074137067649724,
      0.035960472196355155,
      -0.16538332125501343,
      -0.5149954172611185,
      -0.37214430211051797,
      -0.4712717546739816,
      -0.8448953282008356,
      -0.6081317459970583,
      0.3070099587480238,
      0.3417850975697682,
      -1.1401282609649628,
      -0.7102295911791342,
      -0.12310688777169634,
      1.0155175658867275,
      -0.9453220720924522,
      -1.1730656889085678,
      -1.6314861239217022,
      -1.3642192210015618,
      -1.0850581929912322,
      -0.7387453320250169,
      -0.27869010455686166,
      -0.1415042590613396,
      -0.18404952823175233,
      -0.053353503649265256,
      -0.0021279336836253875,
      0.015772838302563562,
      -0.008888795913410677,
      -0.04927889445446208,
      -0.04640019849983584,
      0.043321502918775304,
      -0.15107989066591007,
      -0.4646718918468339,
      -0.4713111257135444,
      -1.0037971919916107,
      -1.3748104529425584,
      -0.9675278038624245,
      -0.2323320468545388,
      0.25676143027014053,
      -0.2560798853411468,
      0.057709610503010274,
      -0.7257682433528573,
      -0.2083889129107896,
      -0.5109557484398738,
      -0.45329143877202166,
      -1.3357663479803012,
      -1.6096859592262112,
      -0.8608262840305572,
      -0.48263436307841306,
      -0.18916843350273255,
      -0.19625044470982342,
      -0.04607942565926808,
      -0.002192877578292763,
      0.0779114304624746,
      0.04546973884407882,
      0.03152371498676138,
      -0.12734923348366187,
      -0.05451113256152061,
      -0.12391494147131918,
      -0.1379729892052325,
      -0.30602906321949164,
      -0.581878868581082,
      -0.7312294050788855,
      -0.5944958883282568,
      -0.581380075607291,
      -0.44249845822899275,
      0.729025274184983,
      1.6270134319630054,
      0.04361608900750189,
      -0.3076916605397204,
      0.8742332520014572,
      0.10089487557200306,
      -0.6204024015433217,
      -1.9759712404897423,
      -1.9198471169841662,
      -0.8655961680313712,
      -0.45823962688179753,
      -0.3066056682684086,
      -0.10144689729754784,
      0.0007235597315847168,
      0.040505303572970976,
      0.06864079690498354,
      -0.017839830147477254,
      0.02346398065198836,
      0.05616904259361362,
      -0.04430060814656226,
      -0.009412372660700677,
      -0.001661175317948122,
      -0.5803437080565282,
      -0.8928359289558174,
      -0.6606934416934093,
      0.5878275529260424,
      0.4843287779365322,
      -0.8431049211186412,
      1.0042720059364938,
      2.1859978621639002,
      1.2210043155385226,
      2.21049423944879,
      1.817683256098778,
      1.7292984502662068,
      0.27739351673525203,
      -0.3599241597815456,
      -0.2834253885323921,
      -0.3268096859528442,
      -0.045071909735728555,
      0.037154785506472734,
      -0.04103398492433754,
      0.037312009274602195,
      -0.06267461190310639,
      0.04077749556150041,
      -0.010758590389456712,
      -0.04026782931507601,
      -0.027036513384060826,
      0.019811098955267115,
      0.006293498086967368,
      -0.11433962219507338,
      -0.5057181772209582,
      -0.40324384486262516,
      0.18727108611006635,
      0.46857988387122074,
      0.4385184582038683,
      -0.6223609234401424,
      -1.7231222101744261,
      -0.9843080370623342,
      0.8668292824552981,
      0.713458505477779,
      0.8630596016656902,
      1.32676373114648,
      1.0153060320212741,
      0.4356248625293939,
      0.1279994231765258,
      -0.059716078998204934,
      -0.023190720817294397,
      0.09572724431807342,
      0.016224352601547764,
      0.05935744754505689,
      -0.058480185233953985,
      0.023162486640732657,
      0.0038382793749847533,
      0.02291927378004579,
      -0.03132768264902897,
      -0.0046936991314812234,
      0.05728424093379196,
      -0.051428994854512675,
      0.039412481641985096,
      -0.08346770910276664,
      -0.003038407195883214,
      0.11032831509708226,
      0.14297425724020119,
      0.2546362543084453,
      0.3399512360656158,
      -0.056279536069300924,
      0.20841591862448938,
      0.18238793417674035,
      0.07167768475465318,
      0.012150186741451864,
      0.06815019557768295,
      0.0016698857521820925,
      -0.0814240081795574,
      -0.0755817466418526,
      0.013678356035621654,
      0.04701663929857479,
      0.056928444630390006,
      0.0020385199844434425,
      0.033446772070532274,
      0.08205221080414922,
      0.010656336162853832
    ],
    [
      -0.01785722257252734,
      -0.05264909616235814,
      0.03306692747940577,
      0.060940487941753704,
      0.016277385145803357,
      0.035613837362142214,
      -0.01662291415274769,
      0.04532458210636909,
      0.016163512650412087,
      -0.03238269862549945,
      0.02493075221880246,
      0.007486982476361034,
      -0.049860932195896324,
      0.02719069090857253,
      0.04151322816664632,
      -0.06898896193448863,
      0.020445108662884806,
      -0.05121386016564107,
      -0.038558625403021754,
      -0.014933021363588057,
      0.06321304337907681,
      0.02279305961702401,
      0.04624911804584889,
      0.03497095268030339,
      -0.013864191889436727,
      -0.03402168589387299,
      -0.09521526674847026,
      0.03000805263082353,
      -0.042606739515590686,
      -0.059961970576418465,
      -0.07102204476624141,
      0.05598651602601932,
      -0.017012459011533917,
      0.002650381541052516,
      0.09769745726182108,
      0.001321127765950254,
      0.03986782266006396,
      0.0772484577284371,
      0.036364785739878766,
      -0.043082345010376506,
      0.0015262504916617088,
      -0.13019347293886196,
      0.021094442493181754,
      0.05363275316033436,
      -0.03149371155003109,
      0.023612601901172516,
      -0.04553535983359073,
      -0.01602500426872652,
      -0.056376378414077416,
      0.11754516390211076,
      -0.04333536017966888,
      0.022909791274265043,
      0.07885612660034381,
      -0.01683981914926864,
      -0.024342078440928085,
      0.03545314838374324,
      0.002947772708099947,
      -0.13979285116864665,
      -0.06870821529829375,
      -0.010657495428164066,
      0.04384705532100425,
      -0.059038750893580176,
      0.13687186890022685,
      0.01668214014023082,
      -0.016048090378500024,
      -0.017803162707826378,
      -0.07007583308834582,
      0.0436092685462268,
      0.0721804283449275,
      0.05007804824860625,
      0.012477425808218118,
      -0.03181152799287719,
      -0.017637036977974918,
      0.046764804018854716,
      0.05344463575447727,
      0.017995651013218247,
      0.05849061790142728,
      0.02467560712524642,
      0.03825827211166616,
      -0.01756669783498932,
      -0.07714599626173975,
      0.006467644844415812,
      0.07287166446445732,
      0.02597139357644307,
      0.0465947571797123,
      -0.02113893231056132,
      -0.0628689146817789,
      -0.06835166952994144,
      -0.06219602128134527,
      0.04465498838480216,
      -0.015514011128944055,
      -0.12470403469905646,
      -0.024990869890180765,
      0.013592876452437857,
      0.030519030562036135,
      0.133461067256573,
      0.02944538124642791,
      0.1525797822156337,
      0.027538863272397247,
      0.024212310769328824,
      -0.07138495191011517,
      0.026525969961731982,
      0.18148838688782823,
      0.05947901546911237,
      0.022008220102476217,
      -0.0015334671476799338,
      0.03636076546815047,
      -0.01178162408929371,
      0.024513458573999145,
      0.030492991259815642,
      0.05542442602323085,
      0.025938592204626774,
      0.04324830493058616,
      0.052702078578597614,
      -0.10112284272435113,
      -0.03342321568628898,
      0.025239387979284517,
      -0.043465078881772756,
      -0.049543337760569926,
      -0.009292578113969387,
      0.034757813982462075,
      0.04457408601440409,
      0.08768253577177776,
      0.047778178064903046,
      0.0378099402857698,
      0.06304064978987592,
      0.07109051635620538,
      0.03837220919500859,
      0.12998490003472168,
      0.2965136898464401,
      0.26370760630476753,
      0.1388840211153577,
      -0.1094256202300679,
      -0.019719675192159312,
      -0.031123255691732486,
      -0.059917201350139504,
      0.011042564950805262,
      0.06576647071537413,
      0.036295214048088976,
      0.0905721826839698,
      -0.048555522566248135,
      -0.029948860706596987,
      -0.06415008127444095,
      0.039538809336729146,
      0.052499962133865395,
      -0.037940453986539044,
      -0.004892527722112218,
      -0.08343881335094142,
      -0.024422934880333584,
      -0.10222724867845562,
      -0.07579036062223835,
      -0.18733819057876344,
      -0.14110869215121,
      -0.14382681652784504,
      -0.06595404455670188,
      -0.04297852579673699,
      0.3419681523505078,
      0.18736384909793696,
      0.04327447109509436,
      0.0003596878742367864,
      -0.15142598371403398,
      -0.11319844256487469,
      -0.009588240557487452,
      -0.06022279097416791,
      0.010049564821357784,
      -0.0552441288739857,
      0.017070364733881106,
      -0.0012686939666395128,
      0.00615861557779743,
      0.00581181547083266,
      0.0232205715210744,
      -0.049799823344375965,
      -0.002023309217490504,
      -0.16725320062816917,
      -0.18747276466290522,
      -0.13812202006350704,
      -0.17841690414795408,
      -0.1475826092782619,
      -0.16274730432569656,
      -0.2925596250075549,
      -0.3968271683959033,
      -0.3653957919163776,
      -0.24900831158770287,
      -0.0378170886523361,
      0.1349812125610127,
      0.11050662600919252,
      0.06669899608584227,
      -0.10138522107635611,
      -0.2883841309473945,
      -0.13700091683225513,
      -0.13381016064657167,
      -0.2582137307348313,
      0.07198588226301451,
      -0.04149977142559832,
      -0.014846773537011096,
      0.009727078078723266,
      0.05812412485692343,
      0.001015725421913821,
      0.09380821037133104,
      -0.023879015725588718,
      0.0762821962100744,
      -0.15663694423715294,
      -0.15690427105660987,
      -0.19990345658464273,
      -0.27097115538933364,
      -0.253179449870532,
      -0.24632545353255678,
      -0.43722805886568095,
      -0.40577864783221973,
      -0.4315152840555818,
      -0.3690742708497534,
      -0.44325737144974947,
      -0.2130328376349912,
      -0.08185142410263965,
      -0.07282648218462592,
      -0.11622808625750508,
      -0.20611865042585617,
      -0.18708663304050063,
      -0.09049621202947136,
      -0.018250950867069498,
      0.010915677285129146,
      -0.08363196285906595,
      0.10254591358803807,
      -0.0011394763124633197,
      0.10540489572753131,
      0.011101980488405425,
      0.0068507310860356435,
      0.0013679238545880393,
      0.08312507242568362,
      -0.11277171837432823,
      -0.12965915550493265,
      -0.22543487070836443,
      -0.08710315919506254,
      -0.043375486737810116,
      -0.1575121365545215,
      -0.2713160200685713,
      -0.20109460602078164,
      -0.09008909024858501,
      -0.16133140562478382,
      -0.436126209209647,
      -0.4471336579420617,
      -0.24857389947013916,
      -0.29603936870694114,
      -0.2989159581119036,
      -0.2429960105655764,
      -0.19136524369078695,
      -0.14934969572576384,
      -0.0504916748040405,
      -0.10342097869434251,
      0.042845711594154866,
      0.0006397413240475103,
      0.06265497371814904,
      -0.018947570624499685,
      -0.029080896833085276,
      0.06461770341581412,
      0.025663056714933602,
      0.045783531036360035,
      -0.10127536697218442,
      -0.049966252494217454,
      -0.10887077326649006,
      -0.09528876413507992,
      -0.2656233132015571,
      -0.19076602213235172,
      -0.24156735486015843,
      0.02613037281907068,
      0.16461107530757224,
      0.02985185393049159,
      -0.2890329636832022,
      -0.4419449102109584,
      -0.4261484968329672,
      -0.3843619062347474,
      -0.33509168349191276,
      -0.16252973373520613,
      -0.13687519562681102,
      -0.018386464236601174,
      0.0816610379726363,
      0.031280667077820845,
      -0.04269307232366412,
      -0.004008905517080203,
      -0.007857888946506818,
      0.02662912187098137,
      -0.0645134170631949,
      -0.019305097200712426,
      0.02160208143548776,
      -0.032848389822966145,
      -0.1062686335309597,
      -0.05037519068979155,
      -0.15068425900777052,
      0.002771520430759417,
      -0.18721208208786316,
      -0.1980706200257144,
      -0.020714313452499956,
      -0.00258813626941351,
      0.03680046031003256,
      -0.17921998256621346,
      -0.25168068522208625,
      -0.4974714789904803,
      -0.5604615310833433,
      -0.3314916054732203,
      -0.40773813256067476,
      -0.12087489752007745,
      0.01705087541993435,
      0.11789671491717388,
      0.10524642661758336,
      0.03982582532560031,
      0.022113666367285775,
      -0.02866864662698444,
      -0.062171687940223215,
      0.0317833230057007,
      0.015507056167171523,
      0.05909240996853427,
      0.06111233482162779,
      -0.04859425272359256,
      -0.02017603184672248,
      -0.16417812386577646,
      -0.10061517385226448,
      -0.15495312827633212,
      -0.01935470659671451,
      -0.11373367074274372,
      -0.08379080193466364,
      -0.08144946155399091,
      -0.06636130570921911,
      -0.15219042873105207,
      -0.3488644459371616,
      -0.5098468149051317,
      -0.3078973560457159,
      -0.3340667944035933,
      -0.21171570171849613,
      -0.2045280883926368,
      -0.11514102353060997,
      0.13615505787912727,
      0.20553161798643949,
      0.10818651397230146,
      -0.055879784600171,
      0.00711461926331586,
      -0.006243250139896366,
      0.05437091994178344,
      -0.004648263381076288,
      -0.04224002162517411,
      -0.0010786762259019445,
      -0.03953536769838973,
      -0.06960515899408129,
      -0.0463254700701351,
      -0.24034590504485065,
      -0.0309554750700996,
      -0.0347687722845807,
      -0.08342836694635898,
      0.041412627647138496,
      -0.044071349646714116,
      -0.2234755538733505,
      -0.22615074324207157,
      -0.2924512591139648,
      -0.3295015059785325,
      -0.2936120970729308,
      -0.09348209864513563,
      -0.1650793828304041,
      -0.14838772849836493,
      -0.07581181521767241,
      0.016013250349094798,
      0.16426843131755098,
      0.1199816426888836,
      0.01276832067595575,
      0.05065681647692243,
      0.026482637727894467,
      0.02981540946057134,
      0.006792011596883855,
      0.053326196530262104,
      -0.09448038470260067,
      0.011828289442910877,
      -0.07265705493058275,
      -0.11476349031037344,
      -0.031914290490238084,
      0.08012344047994543,
      0.000505706956706353,
      0.12500609509519472,
      -0.024715462761619095,
      -0.16586635508986503,
      -0.33444277166610364,
      -0.3445533851578403,
      -0.3469486043574463,
      -0.4131698220693324,
      -0.375404110699478,
      -0.07609330992704913,
      -0.2522849142770758,
      -0.3252530325804289,
      -0.07539422019284167,
      0.05964596560417887,
      0.2860002663012325,
      0.08734031849463968,
      -0.018804613681137953,
      -0.03957332221375477,
      -0.010855645661819398,
      0.0534984438205418,
      -0.013480763526090202,
      0.012302902255962573,
      -0.030336069465603355,
      -0.08146196276170621,
      -0.029250303228491148,
      -0.14083671700847677,
      0.01745955634093225,
      0.03406367294903495,
      0.020934510356235024,
      -0.01119773792058381,
      -0.11891202408269455,
      -0.09021464359292801,
      -0.11198133159820439,
      -0.11060780883271418,
      -0.31311542636791856,
      -0.20502752325178838,
      -0.07451487953263156,
      -0.16423486409964738,
      -0.07336189175520175,
      -0.20959619432093868,
      0.11383913209827613,
      0.15968257789121165,
      0.1805126194325352,
      0.14185426633786935,
      0.005732751475905046,
      -0.02088963891945051,
      -0.0028357410856518343,
      -0.010338214731337765,
      0.03574823293717093,
      -0.03183608991998961,
      0.03964807793384065,
      -0.0704439045964233,
      0.03322339321815374,
      -0.20026224448816296,
      0.022593858332220697,
      0.09281471905861957,
      0.09134691688607241,
      -0.17219596332054263,
      -0.2786940041685239,
      -0.2844526829687464,
      -0.3325421899163553,
      -0.052669810871003114,
      -0.07502409148109368,
      -0.15421499562990013,
      -0.12424666281398583,
      -0.14673006429765645,
      -0.08969012990625269,
      0.044818214461155394,
      0.3172259960887702,
      0.1430261526132967,
      0.001870372964468181,
      0.05350661128403345,
      -0.000014246329838423812,
      -0.010514347825986255,
      -0.03134166389133899,
      0.0006469172185171309,
      0.02821832228849283,
      -0.006941365012800236,
      0.02612730913186947,
      -0.03715470610413442,
      -0.018676697109274328,
      0.01601586629029329,
      -0.04838395726159998,
      0.05798100173405278,
      0.06347364182588366,
      -0.20927951617139146,
      -0.24048855904478156,
      -0.26245022936762685,
      -0.21548898846205922,
      -0.09902450536472668,
      -0.2572312883883573,
      -0.384601645136514,
      -0.5495630821848811,
      -0.2951245952519449,
      0.11106866471983168,
      0.2626384379077698,
      0.33213887050323304,
      0.060710555308738076,
      -0.12069534103391626,
      -0.09605515907080842,
      -0.038982022868015116,
      -0.008323804294097457,
      -0.04702003148282275,
      0.04212571250245764,
      0.015199211725071651,
      -0.036188137248430896,
      0.05136321996210574,
      -0.10647351302654938,
      -0.1198553856940734,
      -0.006058006878903409,
      0.008278498324948964,
      0.048058246233440315,
      -0.007486231668297675,
      -0.12280010453018914,
      -0.13339499068922755,
      -0.20727365714332505,
      -0.018188679088484067,
      -0.14475581805088408,
      -0.3625092069391896,
      -0.40551067731233525,
      -0.2657985120531218,
      -0.03233018587522343,
      0.0502456436722236,
      0.21151710603274881,
      0.012791403248702551,
      -0.1253869355732979,
      -0.2027669326084206,
      -0.10383185565828727,
      -0.037114705491070654,
      -0.09901953981598056,
      0.05214682435593891,
      -0.008514365825284548,
      0.04108737562641063,
      0.05052858424361764,
      -0.033836727382709715,
      -0.13398071331829034,
      -0.14707250918006545,
      -0.09150135818547545,
      -0.02721289619835815,
      0.03336553785797557,
      0.1309553651475904,
      -0.06854913178741417,
      -0.18041155429442252,
      -0.10035697830456117,
      -0.060089514906394643,
      -0.20102441260912535,
      -0.4549837748174961,
      -0.3261929692166902,
      -0.05421772437885266,
      0.09947029188326226,
      -0.0591689370183571,
      -0.1435385982497808,
      -0.17724847497025245,
      -0.26665009009215124,
      -0.18827246479195986,
      -0.022551508169279054,
      0.0030478559956838673,
      -0.007627815112782903,
      0.13237936218003424,
      -0.007130258824563176,
      -0.04849421047796873,
      -0.003814984323777661,
      -0.039943070326684454,
      -0.029522389555260164,
      -0.059140613698573645,
      0.04070936104205312,
      0.047988969334937966,
      0.03911023876255435,
      -0.09485201174995557,
      -0.034532547897379695,
      -0.04693050077909269,
      -0.01527697853171179,
      -0.13241606509051976,
      -0.21996941802165793,
      -0.26360736444683963,
      -0.13600238257602806,
      0.13359067821375856,
      0.07827659296438264,
      -0.13420251215237727,
      0.06983685052544038,
      -0.3206200152759401,
      -0.165489015527518,
      -0.10335214424657335,
      -0.02131369183430674,
      0.030119155350539335,
      0.02709262631415473,
      0.0022364615877795155,
      0.04701242018430259,
      0.030191894955665283,
      -0.004894261685940323,
      -0.014663455701780287,
      -0.046350234595870926,
      0.03991644833106619,
      -0.06107222328432191,
      0.049515793735755695,
      0.06746857952806108,
      0.049051283527845345,
      0.0537622787291633,
      -0.14024476759936447,
      -0.1928439197082909,
      0.047506279245659144,
      0.18960009608189957,
      0.16583695406633026,
      -0.04904314069099752,
      -0.20281611706673267,
      -0.07328554926376028,
      -0.25668084294128124,
      -0.09124702640992388,
      -0.10369620555398507,
      -0.25273306553484165,
      -0.14605390877478205,
      0.004089918851603775,
      -0.05618590215661098,
      -0.0020354765424675917,
      0.042025252162676476,
      0.09085510143201582,
      -0.07021261529392783,
      0.023761842414953892,
      -0.05525236999604218,
      0.08123297367732148,
      -0.0828506080564479,
      -0.044148136319892124,
      0.14855628200482202,
      0.15405368251392607,
      -0.21578981387319765,
      -0.2469530611469151,
      -0.1458371357323049,
      -0.0003193290221215445,
      -0.06429531709179684,
      -0.06817589217012049,
      -0.15145539050391327,
      -0.2879376566804501,
      -0.22576567321301844,
      -0.06417577607671696,
      -0.10467931013799943,
      0.020922810603630247,
      -0.08124822890688553,
      -0.1861806904226776,
      -0.05894307723856008,
      -0.05615237151537547,
      -0.006989095551474148,
      -0.06067659521156474,
      -0.037947695071563564,
      -0.012475958277063548,
      0.003912439062953369,
      0.058603319603065626,
      -0.06093660292769813,
      0.10730454860454793,
      0.027438453115838222,
      -0.16894407919403812,
      0.005545207664540684,
      -0.06426232196896688,
      -0.09065689820467518,
      -0.12573313887802737,
      -0.00865563147237879,
      0.01828610391455881,
      -0.019695628264558968,
      -0.02933329162529966,
      -0.2602642037774934,
      -0.22732772493951328,
      -0.16255549933378843,
      -0.14120364376724473,
      -0.10417221525256974,
      -0.04863000525619297,
      -0.08853473299129562,
      -0.03730779783508444,
      -0.09127850037191054,
      -0.006011494335881602,
      0.038831323581788896,
      -0.07855564732980211,
      0.04115850164569757,
      -0.015390878869883684,
      0.028914205444180514,
      -0.027158990526561313,
      0.07083956011951008,
      0.010954411384127442,
      0.05996739493989666,
      0.07265079354506902,
      0.012569952836108178,
      -0.04185529404078206,
      0.02417186861798032,
      -0.14837070572860006,
      -0.03344249961643114,
      0.09805929480760722,
      0.0658610276172143,
      -0.10525672451553506,
      -0.16525397306195244,
      -0.248141188400453,
      -0.06535387159500275,
      -0.20382749952993287,
      -0.03077568810949821,
      -0.08839928201671314,
      -0.051177033466953924,
      -0.07349539049638412,
      -0.041955348894373475,
      0.003949157242818156,
      0.03487947132889194,
      -0.03528684317949381,
      0.03465504114005932,
      0.0030980032533503917,
      0.041130099526709735,
      0.02452589429344352,
      0.04117254737077221,
      0.017489794875499638,
      -0.0446689268834672,
      0.0465527320217024,
      -0.014356246626592212,
      -0.1302940221078247,
      -0.12416161366307887,
      -0.033841570127353324,
      -0.07860171328637622,
      0.029172041067967613,
      -0.05080468019666077,
      -0.01478265467917734,
      -0.22369419578513752,
      -0.3342033496442973,
      -0.27085207312143394,
      -0.1418620888978954,
      -0.012426103838745695,
      -0.07219283840928914,
      -0.11196606646819438,
      -0.04383430919559948,
      -0.09828233875094632,
      -0.01592363325256529,
      0.03663265938502785,
      0.11451366590577539,
      -0.008088168733364718,
      -0.041210183455781764,
      0.05007661395052593,
      -0.01802843883332237,
      0.034667380262798725,
      -0.025199715733534227,
      -0.017927253681882166,
      -0.056966519693130845,
      0.020021522179475306,
      0.04143225968232848,
      0.052048537657878334,
      -0.050347156910019154,
      -0.0054312068438819895,
      0.015048560575039465,
      0.0009224423642202287,
      0.022369294322785064,
      -0.03291460616876002,
      -0.17725130597857142,
      -0.17927684796983034,
      -0.10583991679407909,
      0.047463953129799424,
      0.031485640129959656,
      0.0734684740879106,
      -0.005954152564307883,
      0.003038515325389508,
      -0.020982645602251052,
      -0.001986982955133293,
      -0.028675418970527517,
      0.005998478645529826,
      0.061199437168897135,
      0.05309745121505771,
      0.035066008425439756,
      0.06472354752344071,
      0.024528040104942653,
      0.05370802391265558,
      -0.04424816862339314,
      -0.01001382120889065,
      -0.03069437171403641,
      -0.0008617545568217525,
      -0.05386568141570809,
      0.06566457835310462,
      -0.04344687294110932,
      -0.052587621258564365,
      -0.032622092540464664,
      0.12469562118292944,
      -0.005923307245801545,
      0.02125941363744578,
      -0.0020588099308182254,
      0.08616434271106503,
      0.05471757082141045,
      -0.03367758767841488,
      -0.05236976123495231,
      0.09022713419777646,
      -0.020749596062632564,
      -0.07271790134551304,
      0.07639754128290156,
      -0.0602014337335136,
      -0.057268380507777106,
      0.07896834151598514,
      0.05012124178531941,
      -0.05574789796720363,
      0.04402470376013485,
      0.04918408342389962,
      0.025795284314875426,
      -0.04384637293884659,
      0.032677019531946495,
      0.03388492783000139,
      0.04885274539727518,
      -0.015706791734767685,
      -0.042998755127539055,
      0.0268334570670222,
      0.035993717852512555,
      -0.04221772601491095,
      -0.003982497089689488,
      -0.03763973415945533,
      -0.037389644622769114,
      0.0005634321378759198,
      -0.050777226526719586,
      -0.04483179902003614,
      0.023072099265482694,
      -0.08101584271276983,
      0.029045746100139685,
      0.02697400368466767,
      0.07002194800223605,
      -0.012421360235936603
    ],
    [
      -0.06329971668780858,
      -0.10516463880979535,
      -0.09177336400415591,
      0.016227254642617893,
      -0.004597811934177692,
      0.07894319114483918,
      0.004427216517842878,
      -0.08043763794062575,
      0.07124944092904502,
      -0.03320425665865763,
      -0.046630355643675986,
      -0.032742085770251894,
      0.015640989722851915,
      0.08506487792957998,
      -0.04988107686428201,
      -0.005100506563165391,
      0.0414611052601923,
      -0.02697661780113713,
      0.007824458041660771,
      -0.021385050822152064,
      -0.06568742557987768,
      -0.03535456492848656,
      0.044712069127379746,
      0.035516017108340237,
      0.01557195716189603,
      -0.07391442662838683,
      -0.0022946754394187435,
      0.028705192090579607,
      0.06412791641185439,
      -0.02303654147504503,
      0.021815083622056284,
      0.04803935750335948,
      0.008982102290869121,
      0.037109877126999966,
      0.05454301769674946,
      0.06660853169722801,
      -0.037080147522331956,
      -0.01052878636123007,
      0.00505466906078556,
      -0.031052493277256524,
      0.020904490983597226,
      -0.037799552943845495,
      -0.027279610298836444,
      -0.08730878751502417,
      -0.05323230921148394,
      -0.029121901506596437,
      0.027909431693209134,
      -0.039417007068428336,
      0.04398650680622571,
      0.060332730935451266,
      -0.010544575419631242,
      0.009107955378333121,
      0.043288703062783006,
      -0.006372974243875469,
      -0.023114550283301043,
      -0.013089058216937623,
      0.04483341954700423,
      0.009800085974311052,
      -0.03326046229447174,
      -0.05893126072313779,
      0.04189224456626294,
      0.09106363844337098,
      0.032888026554248564,
      0.058273061354809357,
      0.06428453644625118,
      -0.21605182294637346,
      -0.04762753577115259,
      -0.18480340074955395,
      -0.1313077568653266,
      -0.06603811653076017,
      -0.1097948498158292,
      -0.13805411823808145,
      0.04272774078665077,
      -0.0520086269928258,
      -0.08881918545225374,
      -0.029890362974099832,
      -0.26128601276490643,
      0.03787405851061698,
      -0.021847733572920504,
      -0.027811740580115655,
      -0.06633907310954078,
      -0.0560827279986727,
      0.06634556727987287,
      0.04035846695164689,
      0.10578848418402916,
      0.10130940938686042,
      0.013873618406852046,
      0.02228721696114593,
      0.03012831876854507,
      -0.008647270948365848,
      -0.008911273787878057,
      -0.07439410361023692,
      -0.05864817392754915,
      -0.1768806049870606,
      -0.03941040449160753,
      -0.1358887653367172,
      -0.24788241817791346,
      -0.15090110511668392,
      -0.1346069029475459,
      -0.1513304282851616,
      -0.12840718265845008,
      -0.005942041021828846,
      0.06662227014453362,
      0.04282845491454026,
      0.034753653213340514,
      0.11860731504591646,
      0.045549978959732645,
      -0.04357331568810698,
      -0.021805111693061426,
      -0.03908159221714114,
      0.024010714144225967,
      -0.007984442922550487,
      0.050231498888271,
      -0.019958850766783345,
      -0.0588977063183428,
      -0.01378546166330736,
      0.043744192360698174,
      -0.01121506939954837,
      -0.03856069576405795,
      -0.024742604831110997,
      -0.4663211821673386,
      -0.3464402399516815,
      -0.1068587401928647,
      -0.5370927884556669,
      -0.7517820726785619,
      -0.40102016811776486,
      0.28235569836344837,
      0.3252792577143381,
      0.15770778419367562,
      0.4835812638761276,
      0.08683203970739432,
      -0.3201961970959835,
      -0.4280248096451573,
      -0.3108625884379173,
      0.005791784842784392,
      -0.0702700090250109,
      -0.056372227813888585,
      -0.020894831282575688,
      -0.028214675595283557,
      0.09473957035072628,
      0.047184438701363955,
      0.04168234484898035,
      -0.04227684840003089,
      -0.019387350153602337,
      -0.010794151791848663,
      0.04013893916981712,
      -0.035294108792845946,
      -0.4243021147932926,
      -0.83177283530386,
      -0.6002210662700731,
      -0.3906740212713783,
      -0.6468088155759049,
      -0.21432004661545884,
      0.1777798342384085,
      0.24464571527121703,
      0.07667140826800842,
      -0.05036625697140391,
      0.10050785610389516,
      0.19113886349136694,
      0.1903185343800169,
      -0.45970001076465716,
      -0.8081383039150452,
      -0.6895736902422979,
      -0.6835847692029986,
      -0.47281732681359895,
      -0.11915788717378237,
      -0.08650617222364537,
      -0.004460219928150049,
      -0.01597638516982934,
      -0.10876206737972492,
      0.042382474512991174,
      -0.023073234393201778,
      -0.0013171253420806168,
      -0.08919161241973393,
      -0.3460226700940258,
      -0.7404332092553594,
      -0.7881562756095409,
      -0.3440708430805212,
      -0.003039957020099284,
      0.1818774092270317,
      -0.1577837306091491,
      -0.30799112343665963,
      -0.5757830530243889,
      -0.5647307612536885,
      -0.8867456019092194,
      -0.8185417719211385,
      -0.03546745818458128,
      0.3461067253598629,
      -0.3392678022207922,
      -0.8074441092355972,
      -1.2819471490247178,
      -0.9059209449241548,
      -0.8514148559434721,
      -0.24793203831764202,
      -0.16977769707835036,
      0.03487913521548912,
      0.07299621706445886,
      0.012725323058248512,
      -0.11634438637532206,
      -0.03522820907653464,
      0.0024170072672998364,
      -0.056064653266875195,
      -0.30190246390671127,
      -0.8207834340213795,
      -0.571579545381991,
      -0.31141176143120286,
      0.25190596362175405,
      -0.13435341186905309,
      -0.4522308317488491,
      -0.8932525430575782,
      -1.1399078005316643,
      -0.9492788519383218,
      -0.7080307217822658,
      0.11630014119455441,
      0.8868574718155011,
      0.9813573470556233,
      0.5286814396763129,
      0.21459332888868207,
      -0.5413863293432022,
      -0.8232730999452204,
      -0.5253138384080043,
      -0.004945223244050375,
      -0.004708423746759998,
      0.03581594022705704,
      0.04087444840553192,
      0.10330049950870862,
      -0.001510375832679352,
      -0.06250810576209523,
      -0.036859724261891796,
      -0.09981591136517384,
      -0.13723853146748435,
      -0.21231058374916925,
      -0.15551269407600518,
      -0.28564660551097815,
      -0.14243494616853697,
      -1.06078122660363,
      -0.6805644435687077,
      -0.8028128448231959,
      -1.1002592034218364,
      -0.7493715957040503,
      -0.567446433599721,
      -0.22453675997557343,
      0.2658946669176393,
      0.7994215582508171,
      0.9440081298099836,
      0.23400090259115067,
      0.18940175467167877,
      0.09561925884323819,
      -0.10222606003630824,
      -0.09943991528068713,
      -0.003449921751370318,
      0.07776657506266503,
      -0.028172835846783057,
      0.02568002117675458,
      0.014358204830917086,
      0.009865856503270636,
      -0.06469147205076389,
      -0.10471563177796905,
      -0.32029712916750935,
      -0.12343010670922325,
      -0.053254407685841006,
      -0.4372683609709651,
      -0.8216320746468234,
      -1.146765051900896,
      -0.809686447369145,
      -0.17684981865331548,
      -0.39776905959844244,
      -0.7416743642623814,
      -0.582109473326776,
      -0.6472328090515881,
      -0.3503817735541622,
      0.04807724271637795,
      0.06623717747194947,
      0.24349782108469423,
      0.4046100810521365,
      0.27678685841940626,
      -0.10274517581319285,
      -0.027890197661570783,
      -0.003938221428317571,
      0.016592018502430285,
      0.03629651840258042,
      0.06061281318172373,
      -0.029090926671992468,
      -0.00009663751534472824,
      0.06507218522791973,
      -0.12195459622334752,
      -0.007583643367138655,
      0.2174125645478572,
      -0.32522265580687587,
      -0.4590808119158814,
      -0.8287987374376565,
      -0.6901226396966411,
      -0.26644080490227906,
      -0.035058185086881855,
      -0.4867537204936669,
      -0.820306438990775,
      -0.7471330058328877,
      -0.7055411015144685,
      -0.33560994024492974,
      0.4645697613842243,
      0.31985246994781535,
      0.2927239862828084,
      0.8507865583122634,
      0.3921160649336071,
      0.1333432268499604,
      -0.05020027423165218,
      -0.026252522804612825,
      -0.0025561169713038175,
      0.1049710652579521,
      -0.007497464060632837,
      -0.06510530092728264,
      -0.07395154982099254,
      -0.05420576771975738,
      -0.2121681609674343,
      0.347334791341069,
      -0.12233362843777967,
      -0.6260973297868883,
      -0.3828050233265592,
      -0.46842847513012625,
      -0.7265249445381553,
      -0.35844391356016053,
      -0.5163779046046375,
      -1.0676513096416096,
      -1.2718975924482683,
      -1.7245518287688395,
      -1.5652164181700567,
      -0.8964589178488455,
      -0.4303412321027009,
      0.15963880659652094,
      0.5950692532886847,
      0.6327464928230708,
      0.324279901565004,
      -0.1697749716051686,
      -0.017189082066896816,
      0.0778561555292186,
      0.01924810958525047,
      -0.01830717329102207,
      -0.02348943213210019,
      0.02193315352470564,
      -0.06491414044615473,
      -0.058110001668563296,
      0.18378813532329186,
      0.3195252297111524,
      -0.3453042158376716,
      -0.6949891991187349,
      -0.2261597840617217,
      -0.5245246300768222,
      -0.9786804860184943,
      -0.737301225889167,
      -0.8550708477006734,
      -1.290401137196498,
      -1.8119615496502142,
      -2.004457937032964,
      -1.7102218706196284,
      -1.0705701213512808,
      -0.8085698966453582,
      -0.30450390377269526,
      0.348630333568598,
      0.6566450909315428,
      0.8334399512658759,
      -0.20043851223226122,
      0.10723998765661617,
      0.07363526531309253,
      0.131016976767258,
      -0.016616682983256487,
      -0.01968876324991434,
      -0.03657363621080607,
      -0.09803351051069888,
      0.13511487541824968,
      0.23917360479768546,
      -0.09622284664807668,
      -0.12752790042654003,
      0.028840474750547917,
      0.08016212223058336,
      -0.6068143463394351,
      -1.1143727306192261,
      -1.136480862766902,
      -1.3334465679766008,
      -1.7708248109907543,
      -2.072563749899114,
      -2.0867072218259204,
      -2.020755073929719,
      -1.5233695844217887,
      -1.2148122003712503,
      -0.456740499432089,
      -0.18519181956456726,
      0.4371423332675156,
      0.3127410268710416,
      -0.08682342888483258,
      0.12676197876691012,
      0.10254558224500625,
      -0.03726471050021877,
      0.06485888224653466,
      0.027960924464376764,
      0.03188895158819921,
      -0.07880400875883777,
      0.13918799394311718,
      0.0013373219036568952,
      0.3057999121779787,
      0.2574591957371412,
      0.3567254578345793,
      -0.05591504546482173,
      -0.7303984292905118,
      -1.1984141458896573,
      -1.3171677064664098,
      -1.4621630556368985,
      -1.8915121801432722,
      -2.0708784287259827,
      -1.7325231968825365,
      -1.7556871300236814,
      -1.177240776741169,
      -0.8618999776768224,
      -0.4897995326640137,
      0.2090360494299844,
      0.305342465130658,
      0.2616908190333189,
      -0.2904415073832025,
      0.025889769240670758,
      0.001383319422469083,
      0.05185448566290616,
      0.10133146128242229,
      -0.03228646638690112,
      0.08335659479986655,
      -0.20349166035515337,
      -0.021731582257830225,
      0.009084391524638368,
      0.25087220298605745,
      0.7865326729848766,
      0.4227300307877219,
      -0.11974871339514083,
      -0.9066590819422807,
      -1.5085715820236762,
      -1.4746430419144545,
      -1.6962772153122219,
      -1.5121819135040868,
      -1.1701473309448838,
      -0.9617794446071526,
      -0.7210445111389074,
      -0.6147110524852163,
      -0.5081424198934817,
      -0.26835721811912655,
      0.1270527931252049,
      0.907908313980124,
      0.41006086719911217,
      -0.32300782733352273,
      -0.16611966443959972,
      0.062071654662562356,
      -0.03293132341897982,
      0.02128975414583515,
      0.05356717920871381,
      -0.014604741650440064,
      -0.17819186771343423,
      0.1324218944490658,
      0.37443599618706286,
      1.0478530015474843,
      0.7117779405182192,
      0.447908905245421,
      -0.2656959401318851,
      -0.9675035894630669,
      -1.0661481797337151,
      -1.095083125138342,
      -1.209834735558691,
      -0.8742739612565112,
      -0.629877003149724,
      -0.602231233189797,
      -0.7079048246380547,
      -0.6111428204427021,
      0.13562654690806333,
      0.11192020663552175,
      -0.3622063054689977,
      0.6276974433680833,
      -0.1771357216253699,
      -0.2877584960827648,
      -0.0205360144500813,
      -0.009953331756249852,
      -0.04233529086495587,
      0.03421727437362042,
      -0.01219563867743081,
      0.005971829096595824,
      -0.26344695050911227,
      0.239525798597678,
      0.3776340380567083,
      0.9594521964244441,
      0.711218820068809,
      0.08116936510474572,
      -0.5480118084595406,
      -1.103921437457057,
      -1.0474569191446725,
      -1.3143960013132348,
      -1.3765362623868527,
      -1.0558950905243936,
      -0.7962103869478279,
      -0.5605577047858215,
      -0.8459450138651256,
      -0.6900024871244236,
      0.14886577603548004,
      -0.4400860968764596,
      -0.13827212973234207,
      0.0041612221842470066,
      -0.4484539575372688,
      0.04100874840223482,
      0.02608791943795734,
      -0.030649985736333662,
      0.10001688868041685,
      -0.0118547109899915,
      0.023877708653506864,
      -0.01777312395157443,
      -0.28606428038889176,
      0.032257025066290856,
      0.18308416945443015,
      0.5339318600919742,
      0.4152597156321533,
      -0.2835598497513285,
      -0.8192747767965117,
      -1.2868817245441482,
      -1.2885366394821565,
      -1.4996772238586384,
      -1.7691144253946927,
      -1.363523704859163,
      -0.7637175666579038,
      -0.25916257682104865,
      -0.6767882455183811,
      -0.7162147828442851,
      -0.2792066050836728,
      -0.3941652500727898,
      -0.15877833294907584,
      -0.6036055737799214,
      -0.22780797210094125,
      0.03670932022931616,
      0.04152316582581756,
      0.03302134303894291,
      -0.032389450186961835,
      0.03556606605539486,
      0.07566059843216409,
      -0.04255672727107847,
      -0.2764621206184717,
      -0.43014322471403704,
      -0.005166288517657984,
      -0.021093940897897668,
      0.4745149819750416,
      0.14486508650782282,
      -0.22300757002831703,
      -0.7096003838688204,
      -1.0409871315268475,
      -1.0153572353097942,
      -1.0582584538155733,
      -0.6696699159264359,
      -0.3995614739271353,
      -0.8733548099246451,
      -0.5443975458041478,
      -0.8868285638312225,
      -0.7079808101994369,
      -0.8667975519946544,
      -0.512927074328829,
      -0.5510091307067837,
      -0.12943138025103582,
      0.010610242832612601,
      0.07882981748166952,
      -0.005241081121642602,
      -0.01051960697250736,
      0.04111921038902696,
      0.02328826667425144,
      -0.023338624177962043,
      -0.31012473238880106,
      -0.7284190772914183,
      -0.38977017877692044,
      -0.07899360590981076,
      0.5246488660520143,
      0.4602890054433574,
      0.4823737782198472,
      0.31518799196719477,
      0.22402382455891307,
      0.1689249819159707,
      0.13867971307548763,
      -0.34159057150887256,
      -0.8243310812921515,
      -0.6406295815413667,
      -0.9537417490408306,
      -1.2902321351667172,
      -1.2032714059869212,
      -1.272778007297146,
      -0.7970235841510769,
      -0.19048570731717232,
      -0.10823290951622141,
      0.002926651118875979,
      0.006319777100479516,
      -0.021370374117882573,
      0.18036567488381675,
      -0.0361494840929353,
      0.002463872541402786,
      0.039745688534443754,
      -0.2992022049372034,
      -0.3946109296279672,
      -0.6619518867910087,
      0.0890112259074562,
      0.718968344445482,
      0.6806071135440409,
      0.4162856298757642,
      0.2777037894881722,
      0.24834465110651574,
      -0.14256747787226537,
      -0.2948165772966972,
      -0.5899001816478466,
      -0.9758308989736029,
      -0.8740450130070431,
      -1.145116551594474,
      -0.7332383423097767,
      -1.0807528902651196,
      -1.2942847294371091,
      -1.054800441935078,
      -0.41400991701752493,
      -0.023768810618133848,
      -0.043266224428098056,
      -0.10325081159350062,
      -0.03980912260878297,
      -0.0002628264847790455,
      0.024498379454912424,
      -0.00029489745076056984,
      0.004715352751637774,
      -0.22444547717823124,
      -0.16294476890746443,
      -0.29692506412678726,
      -0.34828405494702513,
      0.45617092983560165,
      0.49690803260830807,
      0.42366897967269396,
      0.6714859325474216,
      0.4786905600410277,
      0.08415513318983574,
      -0.0389302895331135,
      -0.6407812271003072,
      -0.23208437260785783,
      -0.030158173469419715,
      0.2993248591472298,
      -0.621537988438873,
      -0.8232735437620211,
      -1.0850285806662892,
      -1.0650276477180889,
      -0.4067920861110266,
      -0.07951614992080551,
      -0.10537282268028757,
      0.12287010792052931,
      -0.00954348293808943,
      0.09703657482108392,
      -0.03349431736266723,
      -0.07838450156443046,
      -0.01747401825610507,
      -0.048438851514282365,
      -0.0996952724186414,
      0.022617879158243023,
      -0.7219704221359466,
      -0.5552233890538273,
      -0.22364390497437783,
      0.05008023770473364,
      0.1704786800324597,
      0.2876265780192458,
      0.19368857651801866,
      0.09482667338158214,
      0.35373116349443756,
      0.21529874794663514,
      -0.13550252056407244,
      -0.3220749827092925,
      -0.5068345699564081,
      -0.5128749732987892,
      -0.5397854457107925,
      -0.40243826777987735,
      -0.5474768653234879,
      -0.14097425189838653,
      -0.07615875329061492,
      -0.01249240837756858,
      0.030102058835283236,
      -0.04485032767796482,
      0.009220246712093667,
      0.0018671463999879857,
      0.03732239397939114,
      -0.019423261431562974,
      0.008430264034477846,
      -0.09395405375025678,
      -0.28330483863404154,
      -0.38917745073226223,
      -0.5293812040187958,
      -0.08532777716268368,
      0.17052013571029453,
      -0.07386837372139843,
      -0.33606545333504756,
      -0.4058420580331565,
      -0.3885652447388613,
      -0.4906691174582323,
      -0.8497225439496164,
      -0.965745715134444,
      -0.4327720740744483,
      -0.4400586109466217,
      -0.23537046014292282,
      -0.26352731735968143,
      -0.31497192258107787,
      -0.10686316363976626,
      0.017457020860943355,
      -0.04150302721255984,
      -0.05838076516552297,
      -0.016765442352943836,
      0.015454207481937071,
      -0.055776835610007146,
      0.028356640346656668,
      -0.06790693842430978,
      0.0161392846166282,
      -0.05399652013393211,
      -0.17306058193257154,
      -0.15899080401433108,
      -0.15302122370852445,
      -0.11295091534271115,
      -0.040192322982437155,
      -0.20179175522264411,
      -0.4272295260763129,
      -0.31703336992141806,
      -0.4234821430581338,
      -0.45827288579762604,
      -0.4186269566131322,
      -0.46138633728286527,
      -0.4036107541087933,
      -0.06500896603000866,
      0.00875609935184215,
      -0.07408059128705594,
      -0.008849618062272205,
      -0.07454101250214526,
      0.02975983939470456,
      0.004049511502783767,
      0.011992150779326418,
      0.08127222995904829,
      -0.00435239105779982,
      -0.05986009729798913,
      0.0875668884330672,
      0.005926694098666576,
      -0.04389621220991772,
      -0.0011247122307044934,
      -0.06707760239970505,
      -0.033630353251444284,
      0.022742329107156095,
      -0.06330920186091964,
      0.00496906426474576,
      -0.10065704379825081,
      -0.08646472828419702,
      -0.19424191459904494,
      -0.1696627670850752,
      -0.15147255992646605,
      0.03888661602729877,
      -0.07099364731225109,
      -0.002794276042758514,
      -0.06932202243801101,
      -0.056534053181296305,
      -0.059447179918853815,
      -0.10424266480061711,
      -0.03844819681942959,
      -0.10484029797349263,
      -0.007157308387724012,
      0.004998956137176649,
      -0.05108832144893141,
      0.07037273003167462,
      -0.023710195113954856,
      -0.009348213197615944,
      -0.055440640230251345,
      -0.0340384746491396,
      0.051552864550224696,
      0.011037000458820813,
      0.08579213798746851,
      0.03640127020261803,
      0.05903623798546882,
      0.11927954883839431,
      -0.03951866692841308,
      0.012708581256144087,
      0.03723080798137879,
      -0.031148376691210046,
      0.053556741032478906,
      0.035472738605010865,
      0.07310420788701963,
      0.04266921367379977,
      0.0027606630645162834,
      -0.09456154289271435,
      0.011261474066948444,
      -0.07192234593147465,
      -0.09142060238472617,
      0.08947895916168447,
      0.01061153104633582,
      -0.0031825079331907835,
      -0.02690753100695726
    ],
    [
      0.018034126733063614,
      -0.04967554428256652,
      0.052854424858342734,
      0.0936635622721739,
      -0.07272004809388423,
      -0.10512635275153247,
      -0.02665041201630678,
      0.02768483222285515,
      0.03172622038708417,
      0.034021040320759165,
      0.02216529451438937,
      -0.06638137777696379,
      0.014331980535606092,
      0.032653750176667204,
      0.003319639115603972,
      0.03236415423036689,
      -0.043783134571260346,
      0.01897662828660963,
      -0.06711631610624562,
      0.004240808808630197,
      0.0642298289539883,
      -0.059691832126427466,
      -0.013448466457267678,
      -0.0012136053313005599,
      0.010188631942462755,
      -0.05918996246638591,
      -0.0025420927352980053,
      -0.00712536883865295,
      -0.03813711551655876,
      0.0060806772569102965,
      -0.019442760339807033,
      0.08346711468777024,
      0.01023508745468032,
      -0.08475270951360545,
      0.011468955928797948,
      -0.04864224638752112,
      0.006557967450437157,
      -0.021452230827853684,
      -0.013425328637688907,
      -0.00008663745797449534,
      -0.001221074495005806,
      -0.014483218624217767,
      0.0012893658561756167,
      -0.02941607798297325,
      -0.03157610482154613,
      0.007316880971350222,
      0.013275198002366912,
      0.02745847769039952,
      0.036413358704061614,
      -0.026631713287177658,
      0.001090913049394102,
      0.042786836212110595,
      -0.07405114875564267,
      0.05856433179259149,
      0.029480914878941465,
      -0.015841509312810215,
      -0.02167292795707535,
      0.08122642779444379,
      -0.05679229738960227,
      0.05402243940791103,
      -0.019963805318901746,
      0.08174629556974256,
      0.06930722196646086,
      0.16442076329830616,
      -0.11542365556909351,
      -0.168196787315484,
      -0.08625794204035722,
      0.10214810116615901,
      -0.09334767898740064,
      -0.09675967087950778,
      0.008766680527318417,
      -0.06617474355150857,
      0.058123507408858396,
      0.21028570108324127,
      -0.03406826936789453,
      -0.00044198866661235677,
      0.019155319709245534,
      0.02263399590628756,
      0.03596561538262536,
      0.03393016437447485,
      -0.059718383114932064,
      0.041236371794389055,
      0.024223165949801687,
      -0.01299078957226482,
      -0.006295725098647486,
      0.03981304509675751,
      -0.05954056504791207,
      0.0352591804750051,
      -0.00022418448482531628,
      0.03793956476071002,
      0.1477980481364127,
      0.12341488785350319,
      -0.26271698357568285,
      -0.3250445009651166,
      -0.06732232548613845,
      0.08534229486934296,
      0.036391110730466095,
      0.20809954166110758,
      0.1420948847681178,
      0.541913659652305,
      0.7088765167110204,
      0.35037702971021073,
      0.11476882265327343,
      -0.23065006163206422,
      -0.3900101556419578,
      -0.043066222006602095,
      -0.00616137322114719,
      0.029326394168575916,
      0.024482960000254926,
      0.029228110944300497,
      -0.007263836181086044,
      -0.043786274065121394,
      -0.03181593151171829,
      -0.020907226740441966,
      0.002316666400595888,
      0.06383603566574106,
      0.016301520925364247,
      0.038851779110672585,
      0.08182723394625567,
      -0.11319951095657078,
      0.13167119083510032,
      0.2055633915209121,
      0.3040227128606729,
      0.5011674163888189,
      0.38397756079923,
      0.30224776664369674,
      0.15813334980468693,
      0.6440735048379095,
      0.9027696278273477,
      0.6168377072238472,
      0.22933148348234283,
      -0.13864558596928586,
      -0.421189008808565,
      -0.5436489697683173,
      -0.027580129891514652,
      0.025259891065327604,
      -0.25393820885019613,
      -0.1714682328639517,
      -0.11213345774105168,
      -0.056184421978459784,
      0.035848848536580956,
      -0.09376452679448302,
      -0.016209051674925125,
      0.009426027083947373,
      -0.12936987618551,
      -0.35867353909635113,
      -0.41754606147109746,
      -0.3118804074391009,
      0.17415814808372843,
      0.41707326498822245,
      1.1837242658177696,
      0.808201017827927,
      0.5844585858350746,
      0.03199428122466608,
      0.4488336576549862,
      0.5634660656704383,
      0.259351662049005,
      0.17211004292471746,
      0.30642894709678997,
      0.14744058204635563,
      0.19161659392675917,
      0.02996452120111725,
      -0.2903806024248737,
      -0.39476179843908266,
      -0.3885241728591706,
      -0.17376134047312458,
      0.009649946864366954,
      -0.05170175627860372,
      0.08492586289849603,
      0.019318620063699377,
      0.037893359212468676,
      -0.04767798117524261,
      -0.11502025217493587,
      -0.43645390053597916,
      -0.3506804315764293,
      -0.6409865946595892,
      -0.3230683818192643,
      0.5694389399029623,
      0.9022495759906157,
      0.06308484856103486,
      0.16360795864321925,
      0.22382518916735156,
      -0.17911954635029942,
      -0.7364125302383363,
      -0.33322183713626163,
      -0.2543075844608116,
      -0.34712687060035896,
      -0.6470422427387519,
      -0.4143933636262037,
      -0.4173264308340309,
      -0.15204925649462528,
      -0.39549969242627625,
      -0.23621707829122238,
      -0.019036650278645335,
      0.052670434954855384,
      0.02018963985572626,
      -0.0839079436564324,
      -0.03162225944726605,
      0.02008980868658904,
      -0.08593449035299458,
      -0.05424813754962054,
      -0.3139937081915493,
      -0.3250819019916255,
      -0.7578180148778486,
      -0.008976951341428886,
      0.44663793227937915,
      -0.2072809205920775,
      -0.41684882371839993,
      0.05272613610482119,
      -0.13448779884909107,
      -0.7574315608180079,
      -0.7106911579911734,
      -0.5666746165968914,
      0.0869479901120083,
      -0.38986633431012574,
      -0.7717700001638913,
      -1.0979655302809805,
      -0.6788543778410798,
      -0.13246536777788104,
      -0.2889046890928783,
      -0.07927951138498764,
      0.002322570197571535,
      -0.04055854000738601,
      0.04757857071238084,
      0.013338360206912647,
      -0.032210776897909625,
      0.012032508481269957,
      -0.07141994910271493,
      0.005022632796642293,
      0.008004166637109265,
      -0.26640393348512137,
      -0.1354947705532927,
      0.4634846817521178,
      -0.17725178859970928,
      -0.6184240413914371,
      -0.4492933412992382,
      -0.912022596393049,
      -0.7318453913709753,
      -0.39542977769215193,
      -0.2609194977849486,
      0.18913707702692115,
      0.47462998413981017,
      0.10033591778482769,
      -0.7394262159602437,
      -1.2764111325053484,
      -0.30890979650481487,
      0.08773833204471934,
      -0.13971889501891652,
      -0.1461245611698948,
      -0.013155227838938223,
      -0.005862851637603547,
      -0.023107065723602795,
      -0.0410469593336395,
      -0.0017564992280120987,
      -0.027685539594499882,
      0.11212482083667705,
      0.06808603217547539,
      0.02772492360959193,
      -0.36413643140835505,
      -0.1451899651563258,
      -0.5337527703431266,
      -0.8961801345075446,
      -0.8460043899150962,
      -0.5688166589593844,
      -1.0077961173538517,
      -0.7691854024477751,
      -1.1835625612186043,
      -0.8848370508124976,
      -0.09077040746018117,
      0.2556604053479058,
      -0.4128844002169223,
      -0.703286410906315,
      -0.97560172116702,
      -0.3869488572155756,
      -0.02480070518925261,
      -0.22101920528949884,
      -0.11407575594826526,
      -0.11297256390146682,
      -0.04550697447174636,
      0.015889473421474856,
      0.03742737678929105,
      -0.054724807933775294,
      -0.020534033951838965,
      0.1319436439870765,
      -0.04756241201419784,
      -0.18624511854581288,
      -0.32235727172827416,
      -0.5158295777341021,
      -0.9746944189330424,
      -1.4949402643683765,
      -1.1325547485307086,
      -1.3314762352933058,
      -1.2653849924965792,
      -1.013005417781834,
      -1.065313510323043,
      -1.082087561275373,
      -0.9048052418225982,
      -0.7524947804480678,
      -0.6138138724893348,
      -1.0192439867792005,
      -0.8059061022355504,
      -0.5057785318525406,
      -0.3357488896219947,
      -0.13536222045291624,
      0.009584228317244241,
      -0.053794054870843856,
      0.010345683572269728,
      -0.066431059666462,
      -0.000050851276400614634,
      -0.0052470357700099704,
      -0.01626063174909397,
      0.053321452854372786,
      -0.21358868659415073,
      -0.5332839276086735,
      -0.5547192853720925,
      -0.912273047193563,
      -1.3808834236918228,
      -2.0283855212275848,
      -1.4596775169055203,
      -1.9028111236743583,
      -1.2214242406028528,
      -0.90195084474155,
      -1.3715116348558787,
      -1.4480147825984149,
      -1.112357564421862,
      -1.121404481684346,
      -1.070685477580848,
      -0.6605604550079018,
      -0.6131286503869323,
      -0.7577163964178464,
      -0.4085035430795492,
      -0.4827239207854451,
      -0.010987467550747919,
      -0.08496466247357429,
      -0.048047989840893354,
      -0.02280172265224986,
      0.022938979424675425,
      0.018061786963562813,
      0.041215784055929676,
      0.0397066097954768,
      -0.20744927307348626,
      -0.6175654693752138,
      -0.9338675150763,
      -1.1575872090530832,
      -1.7277284431026592,
      -1.7698854741545689,
      -1.5719298477873642,
      -1.7987329980793512,
      -1.4213217484229435,
      -0.9199035940947502,
      -1.2241054128497924,
      -1.7437535879373554,
      -1.7616087176507356,
      -0.9583961150412771,
      -0.9482331216731107,
      -0.36840455639794106,
      -0.6864591641990992,
      -0.6938500975822656,
      -0.32778527961838233,
      -0.5083985649110898,
      -0.37523256619615813,
      -0.010504388252286292,
      0.01961855386492457,
      0.05376985357748366,
      0.04137373294884653,
      0.07794930403404199,
      -0.05822887408302878,
      -0.09236909047400275,
      -0.17855499193888325,
      -0.5497548837201218,
      -0.9695410198490045,
      -1.0220979020726515,
      -1.474881317212094,
      -1.1240613229872845,
      -0.7136459441734739,
      -0.7231808656490827,
      -0.8122553756620933,
      -0.8476464874956366,
      -1.1296916884686328,
      -1.3678360934710097,
      -1.6322886108469647,
      -0.7595877158376174,
      -0.25938878457017633,
      -0.1420338313618094,
      -0.7482786863558457,
      -0.5601764807839011,
      -0.12483014585259955,
      -0.4989583464549005,
      -0.2767080662562465,
      0.020287350055176567,
      0.05491974059646003,
      -0.01505019105396312,
      -0.03783214359019317,
      -0.015709916221892484,
      -0.06640296312556947,
      -0.05127956817199335,
      -0.15962908363287842,
      -0.613018424681883,
      -0.7156739265187976,
      -0.4895271060796744,
      -1.0126318149386344,
      -0.8779269940546507,
      -0.3654663848534107,
      -0.37951140390326554,
      -0.18408213950134794,
      -0.45728694823616195,
      -1.1525791504590184,
      -1.3048792428471758,
      -0.7418005785490297,
      -0.7213091871919016,
      -0.21862093920120226,
      -0.31464225092281606,
      -0.9510483880177023,
      -0.6718950573160881,
      -0.14244158207519356,
      -0.4761081386534616,
      -0.2570259338101171,
      -0.0699536183122736,
      -0.05871722927556101,
      -0.08514716656393466,
      -0.03881159503435452,
      0.013421709100559048,
      0.0677104994251057,
      0.07870719073524526,
      -0.015616041859458476,
      -0.2733895587553486,
      -0.1774553830432265,
      -0.2593690772720468,
      -0.558482614603306,
      -0.8677642041239383,
      -0.2597045697544651,
      -0.19367490381268027,
      -0.12547325567634862,
      -0.4877736837939913,
      -0.3885475040573745,
      -0.4570910735380931,
      -0.6340701053169517,
      -0.2419353597603369,
      -0.5422202727419704,
      -0.3457053091495344,
      -0.8862275578663852,
      -0.7382636952278411,
      -0.36644467859579755,
      -0.049119326189411325,
      0.08904826454565522,
      0.18969745041306219,
      0.15751872007830958,
      0.09834102875891101,
      0.058925096957326235,
      -0.03269190077421844,
      -0.06243453459510993,
      -0.048581364956015956,
      0.07020128671637547,
      0.12192440117779335,
      -0.29941595698172097,
      -0.40915601008602603,
      -0.5183916898921408,
      -0.5572957151324149,
      -0.528602712770608,
      0.0870693209820694,
      0.23589037552448952,
      0.5822947475189428,
      0.3339249944890723,
      0.26836557639564623,
      -0.24958572750791286,
      -0.14742470207932465,
      -0.5963116985354023,
      -0.5151078844160067,
      -0.10833098786180932,
      -0.29714954291113843,
      -0.2737947630430007,
      0.023447338222030496,
      0.34927525562708106,
      0.4915461372883485,
      0.34125391128393084,
      0.09380752513004154,
      -0.02923838378673427,
      -0.029904318158075895,
      -0.028131240524574566,
      0.027117573594087008,
      0.3104524407759064,
      -0.4345744187902841,
      -0.7260687283740108,
      -0.5053087988713176,
      -0.2941470473037155,
      0.027117153669048752,
      0.3323335542525506,
      0.2038168119170063,
      0.3053706973124783,
      0.4517339731752888,
      0.17738346642271002,
      -0.345202251400724,
      -0.7264135474548791,
      -0.19437561335028733,
      -0.48787666304463373,
      -0.47739859838416154,
      0.09048363643849605,
      0.07871233044235948,
      0.07242100221394429,
      0.08920548186332411,
